#############################################################################
## Copyright (c) 1996, Carnegie Mellon University, Cambridge University,
## Ronald Rosenfeld and Philip Clarkson
## Version 3, Copyright (c) 2006, Carnegie Mellon University 
## Contributors includes Wen Xu, Ananlada Chotimongkol, 
## David Huggins-Daines, Arthur Chan and Alan Black 
#############################################################################
=============================================================================
===============  This file was produced by the CMU-Cambridge  ===============
===============     Statistical Language Modeling Toolkit     ===============
=============================================================================
This is a 3-gram language model, based on a vocabulary of 296 words,
  which begins "</s>", "<s>", "A"...
This is a CLOSED-vocabulary model
  (OOVs eliminated from training data and are forbidden in test data)
Witten Bell discounting was applied.
This file is in the ARPA-standard format introduced by Doug Paul.

p(wd3|wd1,wd2)= if(trigram exists)           p_3(wd1,wd2,wd3)
                else if(bigram w1,w2 exists) bo_wt_2(w1,w2)*p(wd3|wd2)
                else                         p(wd3|w2)

p(wd2|wd1)= if(bigram exists) p_2(wd1,wd2)
            else              bo_wt_1(wd1)*p_1(wd2)

All probs and back-off weights (bo_wt) are given in log10 form.

Data formats:

Beginning of data mark: \data\
ngram 1=nr            # number of 1-grams
ngram 2=nr            # number of 2-grams
ngram 3=nr            # number of 3-grams

\1-grams:
p_1     wd_1 bo_wt_1
\2-grams:
p_2     wd_1 wd_2 bo_wt_2
\3-grams:
p_3     wd_1 wd_2 wd_3 

end of data mark: \end\

\data\
ngram 1=296
ngram 2=588
ngram 3=294

\1-grams:
-0.4781 </s>	-2.2979
-0.4766 <s>	-0.1276
-2.9509 A	-0.1254
-2.9509 ABOUT	-0.1254
-2.9509 ABOVE	-0.1254
-2.9509 ADD	-0.1254
-2.9509 AFTER	-0.1254
-2.9509 AGAIN	-0.1254
-2.9509 AIR	-0.1254
-2.9509 ALL	-0.1254
-2.9509 ALMOST	-0.1254
-2.9509 ALONG	-0.1254
-2.9509 ALSO	-0.1254
-2.9509 ALWAYS	-0.1254
-2.9509 AMERICAN	-0.1254
-2.9509 AN	-0.1254
-2.9509 AND	-0.1254
-2.9509 ANIMALS	-0.1254
-2.9509 ANOTHER	-0.1254
-2.9509 ANSWER	-0.1254
-2.9509 ANY	-0.1254
-2.9509 ARE	-0.1254
-2.9509 AROUND	-0.1254
-2.9509 AS	-0.1254
-2.9509 ASKED	-0.1254
-2.9509 AT	-0.1254
-2.9509 AWAY	-0.1254
-2.9509 BACK	-0.1254
-2.9509 BE	-0.1254
-2.9509 BECAUSE	-0.1254
-2.9509 BEEN	-0.1254
-2.9509 BEFORE	-0.1254
-2.9509 BEGAN	-0.1254
-2.9509 BEING	-0.1254
-2.6498 BELOW	-0.3015
-2.9509 BETWEEN	-0.1254
-2.9509 BIG	-0.1254
-2.9509 BOOK	-0.1254
-2.9509 BOTH	-0.1254
-2.9509 BOY	-0.1254
-2.9509 BUT	-0.1254
-2.9509 BY	-0.1254
-2.9509 CALLED	-0.1254
-2.9509 CAME	-0.1254
-2.9509 CAN	-0.1254
-2.9509 CAR	-0.1254
-2.9509 CARRY	-0.1254
-2.9509 CHANGE	-0.1254
-2.9509 CHILDREN	-0.1254
-2.9509 CITY	-0.1254
-2.9509 CLOSE	-0.1254
-2.9509 COME	-0.1254
-2.9509 COULD	-0.1254
-2.9509 COUNTRY	-0.1254
-2.9509 CUT	-0.1254
-2.9509 DAY	-0.1254
-2.9509 DID	-0.1254
-2.9509 DIFFERENT	-0.1254
-2.9509 DO	-0.1254
-2.9509 DOES	-0.1254
-2.9509 DOWN	-0.1254
-2.9509 EACH	-0.1254
-2.9509 EARTH	-0.1254
-2.9509 EAT	-0.1254
-2.9509 END	-0.1254
-2.6498 ENOUGH	-0.3015
-2.9509 EVEN	-0.1254
-2.9509 EVERY	-0.1254
-2.9509 EXAMPLE	-0.1254
-2.9509 EYES	-0.1254
-2.9509 FAMILY	-0.1254
-2.9509 FAR	-0.1254
-2.9509 FATHER	-0.1254
-2.9509 FEET	-0.1254
-2.9509 FEW	-0.1254
-2.9509 FIND	-0.1254
-2.9509 FIRST	-0.1254
-2.9509 FOLLOWING	-0.1254
-2.9509 FOOD	-0.1254
-2.6498 FOR	-0.3015
-2.9509 FORM	-0.1254
-2.9509 FOUND	-0.1254
-2.9509 FROM	-0.1254
-2.9509 GET	-0.1254
-2.9509 GIRL	-0.1254
-2.9509 GIVE	-0.1254
-2.9509 GO	-0.1254
-2.9509 GOOD	-0.1254
-2.9509 GOT	-0.1254
-2.9509 GREAT	-0.1254
-2.9509 GROUP	-0.1254
-2.9509 GROW	-0.1254
-2.9509 HAD	-0.1254
-2.9509 HAND	-0.1254
-2.9509 HARD	-0.1254
-2.9509 HAS	-0.1254
-2.9509 HAVE	-0.1254
-2.9509 HE	-0.1254
-2.9509 HEAD	-0.1254
-2.9509 HEAR	-0.1254
-2.9509 HELP	-0.1254
-2.9509 HER	-0.1254
-2.9509 HERE	-0.1254
-2.9509 HIGH	-0.1254
-2.9509 HIM	-0.1254
-2.9509 HIS	-0.1254
-2.9509 HOME	-0.1254
-2.9509 HOUSE	-0.1254
-2.9509 HOW	-0.1254
-2.9509 I	-0.1254
-2.9509 IDEA	-0.1254
-2.9509 IF	-0.1254
-2.9509 IMPORTANT	-0.1254
-2.9509 IN	-0.1254
-2.9509 INDIANS	-0.1254
-2.9509 INTO	-0.1254
-2.9509 IS	-0.1254
-2.9509 IT	-0.1254
-2.9509 ITS	-0.1254
-2.9509 JUST	-0.1254
-2.9509 KEEP	-0.1254
-2.9509 KIND	-0.1254
-2.9509 KNOW	-0.1254
-2.9509 LAND	-0.1254
-2.9509 LARGE	-0.1254
-2.9509 LAST	-0.1254
-2.9509 LATER	-0.1254
-2.9509 LEARN	-0.1254
-2.9509 LEAVE	-0.1254
-2.9509 LEFT	-0.1254
-2.9509 LET	-0.1254
-2.9509 LETTERS	-0.1254
-2.9509 LIFE	-0.1254
-2.9509 LIGHT	-0.1254
-2.9509 LIKE	-0.1254
-2.9509 LINE	-0.1254
-2.9509 LIST	-0.1254
-2.9509 LITTLE	-0.1254
-2.9509 LIVE	-0.1254
-2.9509 LONG	-0.1254
-2.9509 LOOK	-0.1254
-2.9509 MADE	-0.1254
-2.9509 MAKE	-0.1254
-2.9509 MAN	-0.1254
-2.9509 MANY	-0.1254
-2.9509 MAY	-0.1254
-2.9509 ME	-0.1254
-2.9509 MEANS	-0.1254
-2.9509 MEN	-0.1254
-2.9509 MIGHT	-0.1254
-2.9509 MILES	-0.1254
-2.9509 MISS	-0.1254
-2.9509 MORE	-0.1254
-2.9509 MOST	-0.1254
-2.9509 MOTHER	-0.1254
-2.9509 MOUNTAINS	-0.1254
-2.9509 MOVE	-0.1254
-2.9509 MUCH	-0.1254
-2.9509 MUST	-0.1254
-2.6498 MY	-0.3015
-2.9509 NAME	-0.1254
-2.9509 NEAR	-0.1254
-2.9509 NEED	-0.1254
-2.9509 NEVER	-0.1254
-2.9509 NEW	-0.1254
-2.9509 NEXT	-0.1254
-2.9509 NIGHT	-0.1254
-2.9509 NO	-0.1254
-2.9509 NOT	-0.1254
-2.9509 NOW	-0.1254
-2.9509 NUMBER	-0.1254
-2.9509 OF	-0.1254
-2.9509 OFF	-0.1254
-2.9509 OFTEN	-0.1254
-2.9509 OIL	-0.1254
-2.9509 OLD	-0.1254
-2.9509 ON	-0.1254
-2.9509 ONCE	-0.1254
-2.9509 ONE	-0.1254
-2.9509 ONLY	-0.1254
-2.9509 OPEN	-0.1254
-2.9509 OR	-0.1254
-2.9509 OTHER	-0.1254
-2.9509 OUR	-0.1254
-2.9509 OUT	-0.1254
-2.9509 OVER	-0.1254
-2.9509 OWN	-0.1254
-2.9509 PAGE	-0.1254
-2.9509 PAPER	-0.1254
-2.9509 PART	-0.1254
-2.9509 PEOPLE	-0.1254
-2.9509 PICTURE	-0.1254
-2.9509 PLACE	-0.1254
-2.9509 PLANTS	-0.1254
-2.9509 PLAY	-0.1254
-2.9509 POINT	-0.1254
-2.9509 PUT	-0.1254
-2.9509 READ	-0.1254
-2.9509 REALLY	-0.1254
-2.9509 RIGHT	-0.1254
-2.9509 RIVER	-0.1254
-2.9509 RUN	-0.1254
-2.9509 SAID	-0.1254
-2.9509 SAME	-0.1254
-2.9509 SAW	-0.1254
-2.9509 SAY	-0.1254
-2.9509 SCHOOL	-0.1254
-2.9509 SEA	-0.1254
-2.9509 SECOND	-0.1254
-2.9509 SEE	-0.1254
-2.9509 SEEMED	-0.1254
-2.9509 SENTENCE	-0.1254
-2.9509 SET	-0.1254
-2.9509 SHE	-0.1254
-2.9509 SHOULD	-0.1254
-2.9509 SHOW	-0.1254
-2.9509 SIDE	-0.1254
-2.9509 SMALL	-0.1254
-2.9509 SO	-0.1254
-2.9509 SOME	-0.1254
-2.9509 SOMETHING	-0.1254
-2.9509 SOMETIMES	-0.1254
-2.9509 SONG	-0.1254
-2.9509 SOON	-0.1254
-2.9509 SOUND	-0.1254
-2.9509 SPELL	-0.1254
-2.9509 STARTED	-0.1254
-2.9509 STATE	-0.1254
-2.9509 STILL	-0.1254
-2.9509 STOP	-0.1254
-2.9509 STORY	-0.1254
-2.9509 STUDY	-0.1254
-2.9509 SUCH	-0.1254
-2.9509 TAKE	-0.1254
-2.9509 TALKED	-0.1254
-2.9509 TELL	-0.1254
-2.9509 THAN	-0.1254
-2.9509 THAT	-0.1254
-2.9509 THE	-0.1254
-2.9509 THEIR	-0.1254
-2.9509 THEM	-0.1254
-2.9509 THEN	-0.1254
-2.9509 THERE	-0.1254
-2.9509 THESE	-0.1254
-2.9509 THEY	-0.1254
-2.9509 THING	-0.1254
-2.9509 THINK	-0.1254
-2.9509 THIS	-0.1254
-2.9509 THOSE	-0.1254
-2.9509 THOUGH	-0.1254
-2.9509 THOUGHT	-0.1254
-2.9509 THREE	-0.1254
-2.9509 TIME	-0.1254
-2.9509 TO	-0.1254
-2.9509 TOGETHER	-0.1254
-2.9509 TOO	-0.1254
-2.9509 TOOK	-0.1254
-2.9509 TREES	-0.1254
-2.9509 TURNED	-0.1254
-2.9509 TWO	-0.1254
-2.9509 UNDER	-0.1254
-2.9509 UNTIL	-0.1254
-2.9509 UP	-0.1254
-2.9509 US	-0.1254
-2.9509 USE	-0.1254
-2.9509 VERY	-0.1254
-2.9509 WALKED	-0.1254
-2.9509 WANT	-0.1254
-2.9509 WAS	-0.1254
-2.9509 WATCH	-0.1254
-2.9509 WATER	-0.1254
-2.9509 WAY	-0.1254
-2.9509 WE	-0.1254
-2.9509 WELL	-0.1254
-2.9509 WENT	-0.1254
-2.9509 WERE	-0.1254
-2.9509 WHAT	-0.1254
-2.9509 WHEN	-0.1254
-2.9509 WHERE	-0.1254
-2.9509 WHICH	-0.1254
-2.9509 WHILE	-0.1254
-2.9509 WHITE	-0.1254
-2.9509 WHO	-0.1254
-2.9509 WHY	-0.1254
-2.9509 WILL	-0.1254
-2.9509 WITH	-0.1254
-2.9509 WITHOUT	-0.1254
-2.9509 WORDS	-0.1254
-2.9509 WORK	-0.1254
-2.9509 WORLD	-0.1254
-2.9509 WOULD	-0.1254
-2.9509 WRITE	-0.1254
-2.9509 YEARS	-0.1254
-2.9509 YOU	-0.1254
-2.9509 YOUNG	-0.1254
-2.9509 YOUR	-0.1254

\2-grams:
-2.7723 <s> A 0.0000
-2.7723 <s> ABOUT 0.0000
-2.7723 <s> ABOVE 0.0000
-2.7723 <s> ADD 0.0000
-2.7723 <s> AFTER 0.0000
-2.7723 <s> AGAIN 0.0000
-2.7723 <s> AIR 0.0000
-2.7723 <s> ALL 0.0000
-2.7723 <s> ALMOST 0.0000
-2.7723 <s> ALONG 0.0000
-2.7723 <s> ALSO 0.0000
-2.7723 <s> ALWAYS 0.0000
-2.7723 <s> AMERICAN 0.0000
-2.7723 <s> AN 0.0000
-2.7723 <s> AND 0.0000
-2.7723 <s> ANIMALS 0.0000
-2.7723 <s> ANOTHER 0.0000
-2.7723 <s> ANSWER 0.0000
-2.7723 <s> ANY 0.0000
-2.7723 <s> ARE 0.0000
-2.7723 <s> AROUND 0.0000
-2.7723 <s> AS 0.0000
-2.7723 <s> ASKED 0.0000
-2.7723 <s> AT 0.0000
-2.7723 <s> AWAY 0.0000
-2.7723 <s> BACK 0.0000
-2.7723 <s> BE 0.0000
-2.7723 <s> BECAUSE 0.0000
-2.7723 <s> BEEN 0.0000
-2.7723 <s> BEFORE 0.0000
-2.7723 <s> BEGAN 0.0000
-2.7723 <s> BEING 0.0000
-2.4713 <s> BELOW 0.0000
-2.7723 <s> BETWEEN 0.0000
-2.7723 <s> BIG 0.0000
-2.7723 <s> BOOK 0.0000
-2.7723 <s> BOTH 0.0000
-2.7723 <s> BOY 0.0000
-2.7723 <s> BUT 0.0000
-2.7723 <s> BY 0.0000
-2.7723 <s> CALLED 0.0000
-2.7723 <s> CAME 0.0000
-2.7723 <s> CAN 0.0000
-2.7723 <s> CAR 0.0000
-2.7723 <s> CARRY 0.0000
-2.7723 <s> CHANGE 0.0000
-2.7723 <s> CHILDREN 0.0000
-2.7723 <s> CITY 0.0000
-2.7723 <s> CLOSE 0.0000
-2.7723 <s> COME 0.0000
-2.7723 <s> COULD 0.0000
-2.7723 <s> COUNTRY 0.0000
-2.7723 <s> CUT 0.0000
-2.7723 <s> DAY 0.0000
-2.7723 <s> DID 0.0000
-2.7723 <s> DIFFERENT 0.0000
-2.7723 <s> DO 0.0000
-2.7723 <s> DOES 0.0000
-2.7723 <s> DOWN 0.0000
-2.7723 <s> EACH 0.0000
-2.7723 <s> EARTH 0.0000
-2.7723 <s> EAT 0.0000
-2.7723 <s> END 0.0000
-2.4713 <s> ENOUGH 0.0000
-2.7723 <s> EVEN 0.0000
-2.7723 <s> EVERY 0.0000
-2.7723 <s> EXAMPLE 0.0000
-2.7723 <s> EYES 0.0000
-2.7723 <s> FAMILY 0.0000
-2.7723 <s> FAR 0.0000
-2.7723 <s> FATHER 0.0000
-2.7723 <s> FEET 0.0000
-2.7723 <s> FEW 0.0000
-2.7723 <s> FIND 0.0000
-2.7723 <s> FIRST 0.0000
-2.7723 <s> FOLLOWING 0.0000
-2.7723 <s> FOOD 0.0000
-2.4713 <s> FOR 0.0000
-2.7723 <s> FORM 0.0000
-2.7723 <s> FOUND 0.0000
-2.7723 <s> FROM 0.0000
-2.7723 <s> GET 0.0000
-2.7723 <s> GIRL 0.0000
-2.7723 <s> GIVE 0.0000
-2.7723 <s> GO 0.0000
-2.7723 <s> GOOD 0.0000
-2.7723 <s> GOT 0.0000
-2.7723 <s> GREAT 0.0000
-2.7723 <s> GROUP 0.0000
-2.7723 <s> GROW 0.0000
-2.7723 <s> HAD 0.0000
-2.7723 <s> HAND 0.0000
-2.7723 <s> HARD 0.0000
-2.7723 <s> HAS 0.0000
-2.7723 <s> HAVE 0.0000
-2.7723 <s> HE 0.0000
-2.7723 <s> HEAD 0.0000
-2.7723 <s> HEAR 0.0000
-2.7723 <s> HELP 0.0000
-2.7723 <s> HER 0.0000
-2.7723 <s> HERE 0.0000
-2.7723 <s> HIGH 0.0000
-2.7723 <s> HIM 0.0000
-2.7723 <s> HIS 0.0000
-2.7723 <s> HOME 0.0000
-2.7723 <s> HOUSE 0.0000
-2.7723 <s> HOW 0.0000
-2.7723 <s> I 0.0000
-2.7723 <s> IDEA 0.0000
-2.7723 <s> IF 0.0000
-2.7723 <s> IMPORTANT 0.0000
-2.7723 <s> IN 0.0000
-2.7723 <s> INDIANS 0.0000
-2.7723 <s> INTO 0.0000
-2.7723 <s> IS 0.0000
-2.7723 <s> IT 0.0000
-2.7723 <s> ITS 0.0000
-2.7723 <s> JUST 0.0000
-2.7723 <s> KEEP 0.0000
-2.7723 <s> KIND 0.0000
-2.7723 <s> KNOW 0.0000
-2.7723 <s> LAND 0.0000
-2.7723 <s> LARGE 0.0000
-2.7723 <s> LAST 0.0000
-2.7723 <s> LATER 0.0000
-2.7723 <s> LEARN 0.0000
-2.7723 <s> LEAVE 0.0000
-2.7723 <s> LEFT 0.0000
-2.7723 <s> LET 0.0000
-2.7723 <s> LETTERS 0.0000
-2.7723 <s> LIFE 0.0000
-2.7723 <s> LIGHT 0.0000
-2.7723 <s> LIKE 0.0000
-2.7723 <s> LINE 0.0000
-2.7723 <s> LIST 0.0000
-2.7723 <s> LITTLE 0.0000
-2.7723 <s> LIVE 0.0000
-2.7723 <s> LONG 0.0000
-2.7723 <s> LOOK 0.0000
-2.7723 <s> MADE 0.0000
-2.7723 <s> MAKE 0.0000
-2.7723 <s> MAN 0.0000
-2.7723 <s> MANY 0.0000
-2.7723 <s> MAY 0.0000
-2.7723 <s> ME 0.0000
-2.7723 <s> MEANS 0.0000
-2.7723 <s> MEN 0.0000
-2.7723 <s> MIGHT 0.0000
-2.7723 <s> MILES 0.0000
-2.7723 <s> MISS 0.0000
-2.7723 <s> MORE 0.0000
-2.7723 <s> MOST 0.0000
-2.7723 <s> MOTHER 0.0000
-2.7723 <s> MOUNTAINS 0.0000
-2.7723 <s> MOVE 0.0000
-2.7723 <s> MUCH 0.0000
-2.7723 <s> MUST 0.0000
-2.4713 <s> MY 0.0000
-2.7723 <s> NAME 0.0000
-2.7723 <s> NEAR 0.0000
-2.7723 <s> NEED 0.0000
-2.7723 <s> NEVER 0.0000
-2.7723 <s> NEW 0.0000
-2.7723 <s> NEXT 0.0000
-2.7723 <s> NIGHT 0.0000
-2.7723 <s> NO 0.0000
-2.7723 <s> NOT 0.0000
-2.7723 <s> NOW 0.0000
-2.7723 <s> NUMBER 0.0000
-2.7723 <s> OF 0.0000
-2.7723 <s> OFF 0.0000
-2.7723 <s> OFTEN 0.0000
-2.7723 <s> OIL 0.0000
-2.7723 <s> OLD 0.0000
-2.7723 <s> ON 0.0000
-2.7723 <s> ONCE 0.0000
-2.7723 <s> ONE 0.0000
-2.7723 <s> ONLY 0.0000
-2.7723 <s> OPEN 0.0000
-2.7723 <s> OR 0.0000
-2.7723 <s> OTHER 0.0000
-2.7723 <s> OUR 0.0000
-2.7723 <s> OUT 0.0000
-2.7723 <s> OVER 0.0000
-2.7723 <s> OWN 0.0000
-2.7723 <s> PAGE 0.0000
-2.7723 <s> PAPER 0.0000
-2.7723 <s> PART 0.0000
-2.7723 <s> PEOPLE 0.0000
-2.7723 <s> PICTURE 0.0000
-2.7723 <s> PLACE 0.0000
-2.7723 <s> PLANTS 0.0000
-2.7723 <s> PLAY 0.0000
-2.7723 <s> POINT 0.0000
-2.7723 <s> PUT 0.0000
-2.7723 <s> READ 0.0000
-2.7723 <s> REALLY 0.0000
-2.7723 <s> RIGHT 0.0000
-2.7723 <s> RIVER 0.0000
-2.7723 <s> RUN 0.0000
-2.7723 <s> SAID 0.0000
-2.7723 <s> SAME 0.0000
-2.7723 <s> SAW 0.0000
-2.7723 <s> SAY 0.0000
-2.7723 <s> SCHOOL 0.0000
-2.7723 <s> SEA 0.0000
-2.7723 <s> SECOND 0.0000
-2.7723 <s> SEE 0.0000
-2.7723 <s> SEEMED 0.0000
-2.7723 <s> SENTENCE 0.0000
-2.7723 <s> SET 0.0000
-2.7723 <s> SHE 0.0000
-2.7723 <s> SHOULD 0.0000
-2.7723 <s> SHOW 0.0000
-2.7723 <s> SIDE 0.0000
-2.7723 <s> SMALL 0.0000
-2.7723 <s> SO 0.0000
-2.7723 <s> SOME 0.0000
-2.7723 <s> SOMETHING 0.0000
-2.7723 <s> SOMETIMES 0.0000
-2.7723 <s> SONG 0.0000
-2.7723 <s> SOON 0.0000
-2.7723 <s> SOUND 0.0000
-2.7723 <s> SPELL 0.0000
-2.7723 <s> STARTED 0.0000
-2.7723 <s> STATE 0.0000
-2.7723 <s> STILL 0.0000
-2.7723 <s> STOP 0.0000
-2.7723 <s> STORY 0.0000
-2.7723 <s> STUDY 0.0000
-2.7723 <s> SUCH 0.0000
-2.7723 <s> TAKE 0.0000
-2.7723 <s> TALKED 0.0000
-2.7723 <s> TELL 0.0000
-2.7723 <s> THAN 0.0000
-2.7723 <s> THAT 0.0000
-2.7723 <s> THE 0.0000
-2.7723 <s> THEIR 0.0000
-2.7723 <s> THEM 0.0000
-2.7723 <s> THEN 0.0000
-2.7723 <s> THERE 0.0000
-2.7723 <s> THESE 0.0000
-2.7723 <s> THEY 0.0000
-2.7723 <s> THING 0.0000
-2.7723 <s> THINK 0.0000
-2.7723 <s> THIS 0.0000
-2.7723 <s> THOSE 0.0000
-2.7723 <s> THOUGH 0.0000
-2.7723 <s> THOUGHT 0.0000
-2.7723 <s> THREE 0.0000
-2.7723 <s> TIME 0.0000
-2.7723 <s> TO 0.0000
-2.7723 <s> TOGETHER 0.0000
-2.7723 <s> TOO 0.0000
-2.7723 <s> TOOK 0.0000
-2.7723 <s> TREES 0.0000
-2.7723 <s> TURNED 0.0000
-2.7723 <s> TWO 0.0000
-2.7723 <s> UNDER 0.0000
-2.7723 <s> UNTIL 0.0000
-2.7723 <s> UP 0.0000
-2.7723 <s> US 0.0000
-2.7723 <s> USE 0.0000
-2.7723 <s> VERY 0.0000
-2.7723 <s> WALKED 0.0000
-2.7723 <s> WANT 0.0000
-2.7723 <s> WAS 0.0000
-2.7723 <s> WATCH 0.0000
-2.7723 <s> WATER 0.0000
-2.7723 <s> WAY 0.0000
-2.7723 <s> WE 0.0000
-2.7723 <s> WELL 0.0000
-2.7723 <s> WENT 0.0000
-2.7723 <s> WERE 0.0000
-2.7723 <s> WHAT 0.0000
-2.7723 <s> WHEN 0.0000
-2.7723 <s> WHERE 0.0000
-2.7723 <s> WHICH 0.0000
-2.7723 <s> WHILE 0.0000
-2.7723 <s> WHITE 0.0000
-2.7723 <s> WHO 0.0000
-2.7723 <s> WHY 0.0000
-2.7723 <s> WILL 0.0000
-2.7723 <s> WITH 0.0000
-2.7723 <s> WITHOUT 0.0000
-2.7723 <s> WORDS 0.0000
-2.7723 <s> WORK 0.0000
-2.7723 <s> WORLD 0.0000
-2.7723 <s> WOULD 0.0000
-2.7723 <s> WRITE 0.0000
-2.7723 <s> YEARS 0.0000
-2.7723 <s> YOU 0.0000
-2.7723 <s> YOUNG 0.0000
-2.7723 <s> YOUR 0.0000
-0.3010 A </s> 2.1732
-0.3010 ABOUT </s> 2.1732
-0.3010 ABOVE </s> 2.1732
-0.3010 ADD </s> 2.1732
-0.3010 AFTER </s> 2.1732
-0.3010 AGAIN </s> 2.1732
-0.3010 AIR </s> 2.1732
-0.3010 ALL </s> 2.1732
-0.3010 ALMOST </s> 2.1732
-0.3010 ALONG </s> 2.1732
-0.3010 ALSO </s> 2.1732
-0.3010 ALWAYS </s> 2.1732
-0.3010 AMERICAN </s> 2.1732
-0.3010 AN </s> 2.1732
-0.3010 AND </s> 2.1732
-0.3010 ANIMALS </s> 2.1732
-0.3010 ANOTHER </s> 2.1732
-0.3010 ANSWER </s> 2.1732
-0.3010 ANY </s> 2.1732
-0.3010 ARE </s> 2.1732
-0.3010 AROUND </s> 2.1732
-0.3010 AS </s> 2.1732
-0.3010 ASKED </s> 2.1732
-0.3010 AT </s> 2.1732
-0.3010 AWAY </s> 2.1732
-0.3010 BACK </s> 2.1732
-0.3010 BE </s> 2.1732
-0.3010 BECAUSE </s> 2.1732
-0.3010 BEEN </s> 2.1732
-0.3010 BEFORE </s> 2.1732
-0.3010 BEGAN </s> 2.1732
-0.3010 BEING </s> 2.1732
-0.1761 BELOW </s> 1.9971
-0.3010 BETWEEN </s> 2.1732
-0.3010 BIG </s> 2.1732
-0.3010 BOOK </s> 2.1732
-0.3010 BOTH </s> 2.1732
-0.3010 BOY </s> 2.1732
-0.3010 BUT </s> 2.1732
-0.3010 BY </s> 2.1732
-0.3010 CALLED </s> 2.1732
-0.3010 CAME </s> 2.1732
-0.3010 CAN </s> 2.1732
-0.3010 CAR </s> 2.1732
-0.3010 CARRY </s> 2.1732
-0.3010 CHANGE </s> 2.1732
-0.3010 CHILDREN </s> 2.1732
-0.3010 CITY </s> 2.1732
-0.3010 CLOSE </s> 2.1732
-0.3010 COME </s> 2.1732
-0.3010 COULD </s> 2.1732
-0.3010 COUNTRY </s> 2.1732
-0.3010 CUT </s> 2.1732
-0.3010 DAY </s> 2.1732
-0.3010 DID </s> 2.1732
-0.3010 DIFFERENT </s> 2.1732
-0.3010 DO </s> 2.1732
-0.3010 DOES </s> 2.1732
-0.3010 DOWN </s> 2.1732
-0.3010 EACH </s> 2.1732
-0.3010 EARTH </s> 2.1732
-0.3010 EAT </s> 2.1732
-0.3010 END </s> 2.1732
-0.1761 ENOUGH </s> 1.9971
-0.3010 EVEN </s> 2.1732
-0.3010 EVERY </s> 2.1732
-0.3010 EXAMPLE </s> 2.1732
-0.3010 EYES </s> 2.1732
-0.3010 FAMILY </s> 2.1732
-0.3010 FAR </s> 2.1732
-0.3010 FATHER </s> 2.1732
-0.3010 FEET </s> 2.1732
-0.3010 FEW </s> 2.1732
-0.3010 FIND </s> 2.1732
-0.3010 FIRST </s> 2.1732
-0.3010 FOLLOWING </s> 2.1732
-0.3010 FOOD </s> 2.1732
-0.1761 FOR </s> 1.9971
-0.3010 FORM </s> 2.1732
-0.3010 FOUND </s> 2.1732
-0.3010 FROM </s> 2.1732
-0.3010 GET </s> 2.1732
-0.3010 GIRL </s> 2.1732
-0.3010 GIVE </s> 2.1732
-0.3010 GO </s> 2.1732
-0.3010 GOOD </s> 2.1732
-0.3010 GOT </s> 2.1732
-0.3010 GREAT </s> 2.1732
-0.3010 GROUP </s> 2.1732
-0.3010 GROW </s> 2.1732
-0.3010 HAD </s> 2.1732
-0.3010 HAND </s> 2.1732
-0.3010 HARD </s> 2.1732
-0.3010 HAS </s> 2.1732
-0.3010 HAVE </s> 2.1732
-0.3010 HE </s> 2.1732
-0.3010 HEAD </s> 2.1732
-0.3010 HEAR </s> 2.1732
-0.3010 HELP </s> 2.1732
-0.3010 HER </s> 2.1732
-0.3010 HERE </s> 2.1732
-0.3010 HIGH </s> 2.1732
-0.3010 HIM </s> 2.1732
-0.3010 HIS </s> 2.1732
-0.3010 HOME </s> 2.1732
-0.3010 HOUSE </s> 2.1732
-0.3010 HOW </s> 2.1732
-0.3010 I </s> 2.1732
-0.3010 IDEA </s> 2.1732
-0.3010 IF </s> 2.1732
-0.3010 IMPORTANT </s> 2.1732
-0.3010 IN </s> 2.1732
-0.3010 INDIANS </s> 2.1732
-0.3010 INTO </s> 2.1732
-0.3010 IS </s> 2.1732
-0.3010 IT </s> 2.1732
-0.3010 ITS </s> 2.1732
-0.3010 JUST </s> 2.1732
-0.3010 KEEP </s> 2.1732
-0.3010 KIND </s> 2.1732
-0.3010 KNOW </s> 2.1732
-0.3010 LAND </s> 2.1732
-0.3010 LARGE </s> 2.1732
-0.3010 LAST </s> 2.1732
-0.3010 LATER </s> 2.1732
-0.3010 LEARN </s> 2.1732
-0.3010 LEAVE </s> 2.1732
-0.3010 LEFT </s> 2.1732
-0.3010 LET </s> 2.1732
-0.3010 LETTERS </s> 2.1732
-0.3010 LIFE </s> 2.1732
-0.3010 LIGHT </s> 2.1732
-0.3010 LIKE </s> 2.1732
-0.3010 LINE </s> 2.1732
-0.3010 LIST </s> 2.1732
-0.3010 LITTLE </s> 2.1732
-0.3010 LIVE </s> 2.1732
-0.3010 LONG </s> 2.1732
-0.3010 LOOK </s> 2.1732
-0.3010 MADE </s> 2.1732
-0.3010 MAKE </s> 2.1732
-0.3010 MAN </s> 2.1732
-0.3010 MANY </s> 2.1732
-0.3010 MAY </s> 2.1732
-0.3010 ME </s> 2.1732
-0.3010 MEANS </s> 2.1732
-0.3010 MEN </s> 2.1732
-0.3010 MIGHT </s> 2.1732
-0.3010 MILES </s> 2.1732
-0.3010 MISS </s> 2.1732
-0.3010 MORE </s> 2.1732
-0.3010 MOST </s> 2.1732
-0.3010 MOTHER </s> 2.1732
-0.3010 MOUNTAINS </s> 2.1732
-0.3010 MOVE </s> 2.1732
-0.3010 MUCH </s> 2.1732
-0.3010 MUST </s> 2.1732
-0.1761 MY </s> 1.9971
-0.3010 NAME </s> 2.1732
-0.3010 NEAR </s> 2.1732
-0.3010 NEED </s> 2.1732
-0.3010 NEVER </s> 2.1732
-0.3010 NEW </s> 2.1732
-0.3010 NEXT </s> 2.1732
-0.3010 NIGHT </s> 2.1732
-0.3010 NO </s> 2.1732
-0.3010 NOT </s> 2.1732
-0.3010 NOW </s> 2.1732
-0.3010 NUMBER </s> 2.1732
-0.3010 OF </s> 2.1732
-0.3010 OFF </s> 2.1732
-0.3010 OFTEN </s> 2.1732
-0.3010 OIL </s> 2.1732
-0.3010 OLD </s> 2.1732
-0.3010 ON </s> 2.1732
-0.3010 ONCE </s> 2.1732
-0.3010 ONE </s> 2.1732
-0.3010 ONLY </s> 2.1732
-0.3010 OPEN </s> 2.1732
-0.3010 OR </s> 2.1732
-0.3010 OTHER </s> 2.1732
-0.3010 OUR </s> 2.1732
-0.3010 OUT </s> 2.1732
-0.3010 OVER </s> 2.1732
-0.3010 OWN </s> 2.1732
-0.3010 PAGE </s> 2.1732
-0.3010 PAPER </s> 2.1732
-0.3010 PART </s> 2.1732
-0.3010 PEOPLE </s> 2.1732
-0.3010 PICTURE </s> 2.1732
-0.3010 PLACE </s> 2.1732
-0.3010 PLANTS </s> 2.1732
-0.3010 PLAY </s> 2.1732
-0.3010 POINT </s> 2.1732
-0.3010 PUT </s> 2.1732
-0.3010 READ </s> 2.1732
-0.3010 REALLY </s> 2.1732
-0.3010 RIGHT </s> 2.1732
-0.3010 RIVER </s> 2.1732
-0.3010 RUN </s> 2.1732
-0.3010 SAID </s> 2.1732
-0.3010 SAME </s> 2.1732
-0.3010 SAW </s> 2.1732
-0.3010 SAY </s> 2.1732
-0.3010 SCHOOL </s> 2.1732
-0.3010 SEA </s> 2.1732
-0.3010 SECOND </s> 2.1732
-0.3010 SEE </s> 2.1732
-0.3010 SEEMED </s> 2.1732
-0.3010 SENTENCE </s> 2.1732
-0.3010 SET </s> 2.1732
-0.3010 SHE </s> 2.1732
-0.3010 SHOULD </s> 2.1732
-0.3010 SHOW </s> 2.1732
-0.3010 SIDE </s> 2.1732
-0.3010 SMALL </s> 2.1732
-0.3010 SO </s> 2.1732
-0.3010 SOME </s> 2.1732
-0.3010 SOMETHING </s> 2.1732
-0.3010 SOMETIMES </s> 2.1732
-0.3010 SONG </s> 2.1732
-0.3010 SOON </s> 2.1732
-0.3010 SOUND </s> 2.1732
-0.3010 SPELL </s> 2.1732
-0.3010 STARTED </s> 2.1732
-0.3010 STATE </s> 2.1732
-0.3010 STILL </s> 2.1732
-0.3010 STOP </s> 2.1732
-0.3010 STORY </s> 2.1732
-0.3010 STUDY </s> 2.1732
-0.3010 SUCH </s> 2.1732
-0.3010 TAKE </s> 2.1732
-0.3010 TALKED </s> 2.1732
-0.3010 TELL </s> 2.1732
-0.3010 THAN </s> 2.1732
-0.3010 THAT </s> 2.1732
-0.3010 THE </s> 2.1732
-0.3010 THEIR </s> 2.1732
-0.3010 THEM </s> 2.1732
-0.3010 THEN </s> 2.1732
-0.3010 THERE </s> 2.1732
-0.3010 THESE </s> 2.1732
-0.3010 THEY </s> 2.1732
-0.3010 THING </s> 2.1732
-0.3010 THINK </s> 2.1732
-0.3010 THIS </s> 2.1732
-0.3010 THOSE </s> 2.1732
-0.3010 THOUGH </s> 2.1732
-0.3010 THOUGHT </s> 2.1732
-0.3010 THREE </s> 2.1732
-0.3010 TIME </s> 2.1732
-0.3010 TO </s> 2.1732
-0.3010 TOGETHER </s> 2.1732
-0.3010 TOO </s> 2.1732
-0.3010 TOOK </s> 2.1732
-0.3010 TREES </s> 2.1732
-0.3010 TURNED </s> 2.1732
-0.3010 TWO </s> 2.1732
-0.3010 UNDER </s> 2.1732
-0.3010 UNTIL </s> 2.1732
-0.3010 UP </s> 2.1732
-0.3010 US </s> 2.1732
-0.3010 USE </s> 2.1732
-0.3010 VERY </s> 2.1732
-0.3010 WALKED </s> 2.1732
-0.3010 WANT </s> 2.1732
-0.3010 WAS </s> 2.1732
-0.3010 WATCH </s> 2.1732
-0.3010 WATER </s> 2.1732
-0.3010 WAY </s> 2.1732
-0.3010 WE </s> 2.1732
-0.3010 WELL </s> 2.1732
-0.3010 WENT </s> 2.1732
-0.3010 WERE </s> 2.1732
-0.3010 WHAT </s> 2.1732
-0.3010 WHEN </s> 2.1732
-0.3010 WHERE </s> 2.1732
-0.3010 WHICH </s> 2.1732
-0.3010 WHILE </s> 2.1732
-0.3010 WHITE </s> 2.1732
-0.3010 WHO </s> 2.1732
-0.3010 WHY </s> 2.1732
-0.3010 WILL </s> 2.1732
-0.3010 WITH </s> 2.1732
-0.3010 WITHOUT </s> 2.1732
-0.3010 WORDS </s> 2.1732
-0.3010 WORK </s> 2.1732
-0.3010 WORLD </s> 2.1732
-0.3010 WOULD </s> 2.1732
-0.3010 WRITE </s> 2.1732
-0.3010 YEARS </s> 2.1732
-0.3010 YOU </s> 2.1732
-0.3010 YOUNG </s> 2.1732
-0.3010 YOUR </s> 2.1732

\3-grams:
-0.3010 <s> A </s> 
-0.3010 <s> ABOUT </s> 
-0.3010 <s> ABOVE </s> 
-0.3010 <s> ADD </s> 
-0.3010 <s> AFTER </s> 
-0.3010 <s> AGAIN </s> 
-0.3010 <s> AIR </s> 
-0.3010 <s> ALL </s> 
-0.3010 <s> ALMOST </s> 
-0.3010 <s> ALONG </s> 
-0.3010 <s> ALSO </s> 
-0.3010 <s> ALWAYS </s> 
-0.3010 <s> AMERICAN </s> 
-0.3010 <s> AN </s> 
-0.3010 <s> AND </s> 
-0.3010 <s> ANIMALS </s> 
-0.3010 <s> ANOTHER </s> 
-0.3010 <s> ANSWER </s> 
-0.3010 <s> ANY </s> 
-0.3010 <s> ARE </s> 
-0.3010 <s> AROUND </s> 
-0.3010 <s> AS </s> 
-0.3010 <s> ASKED </s> 
-0.3010 <s> AT </s> 
-0.3010 <s> AWAY </s> 
-0.3010 <s> BACK </s> 
-0.3010 <s> BE </s> 
-0.3010 <s> BECAUSE </s> 
-0.3010 <s> BEEN </s> 
-0.3010 <s> BEFORE </s> 
-0.3010 <s> BEGAN </s> 
-0.3010 <s> BEING </s> 
-0.1761 <s> BELOW </s> 
-0.3010 <s> BETWEEN </s> 
-0.3010 <s> BIG </s> 
-0.3010 <s> BOOK </s> 
-0.3010 <s> BOTH </s> 
-0.3010 <s> BOY </s> 
-0.3010 <s> BUT </s> 
-0.3010 <s> BY </s> 
-0.3010 <s> CALLED </s> 
-0.3010 <s> CAME </s> 
-0.3010 <s> CAN </s> 
-0.3010 <s> CAR </s> 
-0.3010 <s> CARRY </s> 
-0.3010 <s> CHANGE </s> 
-0.3010 <s> CHILDREN </s> 
-0.3010 <s> CITY </s> 
-0.3010 <s> CLOSE </s> 
-0.3010 <s> COME </s> 
-0.3010 <s> COULD </s> 
-0.3010 <s> COUNTRY </s> 
-0.3010 <s> CUT </s> 
-0.3010 <s> DAY </s> 
-0.3010 <s> DID </s> 
-0.3010 <s> DIFFERENT </s> 
-0.3010 <s> DO </s> 
-0.3010 <s> DOES </s> 
-0.3010 <s> DOWN </s> 
-0.3010 <s> EACH </s> 
-0.3010 <s> EARTH </s> 
-0.3010 <s> EAT </s> 
-0.3010 <s> END </s> 
-0.1761 <s> ENOUGH </s> 
-0.3010 <s> EVEN </s> 
-0.3010 <s> EVERY </s> 
-0.3010 <s> EXAMPLE </s> 
-0.3010 <s> EYES </s> 
-0.3010 <s> FAMILY </s> 
-0.3010 <s> FAR </s> 
-0.3010 <s> FATHER </s> 
-0.3010 <s> FEET </s> 
-0.3010 <s> FEW </s> 
-0.3010 <s> FIND </s> 
-0.3010 <s> FIRST </s> 
-0.3010 <s> FOLLOWING </s> 
-0.3010 <s> FOOD </s> 
-0.1761 <s> FOR </s> 
-0.3010 <s> FORM </s> 
-0.3010 <s> FOUND </s> 
-0.3010 <s> FROM </s> 
-0.3010 <s> GET </s> 
-0.3010 <s> GIRL </s> 
-0.3010 <s> GIVE </s> 
-0.3010 <s> GO </s> 
-0.3010 <s> GOOD </s> 
-0.3010 <s> GOT </s> 
-0.3010 <s> GREAT </s> 
-0.3010 <s> GROUP </s> 
-0.3010 <s> GROW </s> 
-0.3010 <s> HAD </s> 
-0.3010 <s> HAND </s> 
-0.3010 <s> HARD </s> 
-0.3010 <s> HAS </s> 
-0.3010 <s> HAVE </s> 
-0.3010 <s> HE </s> 
-0.3010 <s> HEAD </s> 
-0.3010 <s> HEAR </s> 
-0.3010 <s> HELP </s> 
-0.3010 <s> HER </s> 
-0.3010 <s> HERE </s> 
-0.3010 <s> HIGH </s> 
-0.3010 <s> HIM </s> 
-0.3010 <s> HIS </s> 
-0.3010 <s> HOME </s> 
-0.3010 <s> HOUSE </s> 
-0.3010 <s> HOW </s> 
-0.3010 <s> I </s> 
-0.3010 <s> IDEA </s> 
-0.3010 <s> IF </s> 
-0.3010 <s> IMPORTANT </s> 
-0.3010 <s> IN </s> 
-0.3010 <s> INDIANS </s> 
-0.3010 <s> INTO </s> 
-0.3010 <s> IS </s> 
-0.3010 <s> IT </s> 
-0.3010 <s> ITS </s> 
-0.3010 <s> JUST </s> 
-0.3010 <s> KEEP </s> 
-0.3010 <s> KIND </s> 
-0.3010 <s> KNOW </s> 
-0.3010 <s> LAND </s> 
-0.3010 <s> LARGE </s> 
-0.3010 <s> LAST </s> 
-0.3010 <s> LATER </s> 
-0.3010 <s> LEARN </s> 
-0.3010 <s> LEAVE </s> 
-0.3010 <s> LEFT </s> 
-0.3010 <s> LET </s> 
-0.3010 <s> LETTERS </s> 
-0.3010 <s> LIFE </s> 
-0.3010 <s> LIGHT </s> 
-0.3010 <s> LIKE </s> 
-0.3010 <s> LINE </s> 
-0.3010 <s> LIST </s> 
-0.3010 <s> LITTLE </s> 
-0.3010 <s> LIVE </s> 
-0.3010 <s> LONG </s> 
-0.3010 <s> LOOK </s> 
-0.3010 <s> MADE </s> 
-0.3010 <s> MAKE </s> 
-0.3010 <s> MAN </s> 
-0.3010 <s> MANY </s> 
-0.3010 <s> MAY </s> 
-0.3010 <s> ME </s> 
-0.3010 <s> MEANS </s> 
-0.3010 <s> MEN </s> 
-0.3010 <s> MIGHT </s> 
-0.3010 <s> MILES </s> 
-0.3010 <s> MISS </s> 
-0.3010 <s> MORE </s> 
-0.3010 <s> MOST </s> 
-0.3010 <s> MOTHER </s> 
-0.3010 <s> MOUNTAINS </s> 
-0.3010 <s> MOVE </s> 
-0.3010 <s> MUCH </s> 
-0.3010 <s> MUST </s> 
-0.1761 <s> MY </s> 
-0.3010 <s> NAME </s> 
-0.3010 <s> NEAR </s> 
-0.3010 <s> NEED </s> 
-0.3010 <s> NEVER </s> 
-0.3010 <s> NEW </s> 
-0.3010 <s> NEXT </s> 
-0.3010 <s> NIGHT </s> 
-0.3010 <s> NO </s> 
-0.3010 <s> NOT </s> 
-0.3010 <s> NOW </s> 
-0.3010 <s> NUMBER </s> 
-0.3010 <s> OF </s> 
-0.3010 <s> OFF </s> 
-0.3010 <s> OFTEN </s> 
-0.3010 <s> OIL </s> 
-0.3010 <s> OLD </s> 
-0.3010 <s> ON </s> 
-0.3010 <s> ONCE </s> 
-0.3010 <s> ONE </s> 
-0.3010 <s> ONLY </s> 
-0.3010 <s> OPEN </s> 
-0.3010 <s> OR </s> 
-0.3010 <s> OTHER </s> 
-0.3010 <s> OUR </s> 
-0.3010 <s> OUT </s> 
-0.3010 <s> OVER </s> 
-0.3010 <s> OWN </s> 
-0.3010 <s> PAGE </s> 
-0.3010 <s> PAPER </s> 
-0.3010 <s> PART </s> 
-0.3010 <s> PEOPLE </s> 
-0.3010 <s> PICTURE </s> 
-0.3010 <s> PLACE </s> 
-0.3010 <s> PLANTS </s> 
-0.3010 <s> PLAY </s> 
-0.3010 <s> POINT </s> 
-0.3010 <s> PUT </s> 
-0.3010 <s> READ </s> 
-0.3010 <s> REALLY </s> 
-0.3010 <s> RIGHT </s> 
-0.3010 <s> RIVER </s> 
-0.3010 <s> RUN </s> 
-0.3010 <s> SAID </s> 
-0.3010 <s> SAME </s> 
-0.3010 <s> SAW </s> 
-0.3010 <s> SAY </s> 
-0.3010 <s> SCHOOL </s> 
-0.3010 <s> SEA </s> 
-0.3010 <s> SECOND </s> 
-0.3010 <s> SEE </s> 
-0.3010 <s> SEEMED </s> 
-0.3010 <s> SENTENCE </s> 
-0.3010 <s> SET </s> 
-0.3010 <s> SHE </s> 
-0.3010 <s> SHOULD </s> 
-0.3010 <s> SHOW </s> 
-0.3010 <s> SIDE </s> 
-0.3010 <s> SMALL </s> 
-0.3010 <s> SO </s> 
-0.3010 <s> SOME </s> 
-0.3010 <s> SOMETHING </s> 
-0.3010 <s> SOMETIMES </s> 
-0.3010 <s> SONG </s> 
-0.3010 <s> SOON </s> 
-0.3010 <s> SOUND </s> 
-0.3010 <s> SPELL </s> 
-0.3010 <s> STARTED </s> 
-0.3010 <s> STATE </s> 
-0.3010 <s> STILL </s> 
-0.3010 <s> STOP </s> 
-0.3010 <s> STORY </s> 
-0.3010 <s> STUDY </s> 
-0.3010 <s> SUCH </s> 
-0.3010 <s> TAKE </s> 
-0.3010 <s> TALKED </s> 
-0.3010 <s> TELL </s> 
-0.3010 <s> THAN </s> 
-0.3010 <s> THAT </s> 
-0.3010 <s> THE </s> 
-0.3010 <s> THEIR </s> 
-0.3010 <s> THEM </s> 
-0.3010 <s> THEN </s> 
-0.3010 <s> THERE </s> 
-0.3010 <s> THESE </s> 
-0.3010 <s> THEY </s> 
-0.3010 <s> THING </s> 
-0.3010 <s> THINK </s> 
-0.3010 <s> THIS </s> 
-0.3010 <s> THOSE </s> 
-0.3010 <s> THOUGH </s> 
-0.3010 <s> THOUGHT </s> 
-0.3010 <s> THREE </s> 
-0.3010 <s> TIME </s> 
-0.3010 <s> TO </s> 
-0.3010 <s> TOGETHER </s> 
-0.3010 <s> TOO </s> 
-0.3010 <s> TOOK </s> 
-0.3010 <s> TREES </s> 
-0.3010 <s> TURNED </s> 
-0.3010 <s> TWO </s> 
-0.3010 <s> UNDER </s> 
-0.3010 <s> UNTIL </s> 
-0.3010 <s> UP </s> 
-0.3010 <s> US </s> 
-0.3010 <s> USE </s> 
-0.3010 <s> VERY </s> 
-0.3010 <s> WALKED </s> 
-0.3010 <s> WANT </s> 
-0.3010 <s> WAS </s> 
-0.3010 <s> WATCH </s> 
-0.3010 <s> WATER </s> 
-0.3010 <s> WAY </s> 
-0.3010 <s> WE </s> 
-0.3010 <s> WELL </s> 
-0.3010 <s> WENT </s> 
-0.3010 <s> WERE </s> 
-0.3010 <s> WHAT </s> 
-0.3010 <s> WHEN </s> 
-0.3010 <s> WHERE </s> 
-0.3010 <s> WHICH </s> 
-0.3010 <s> WHILE </s> 
-0.3010 <s> WHITE </s> 
-0.3010 <s> WHO </s> 
-0.3010 <s> WHY </s> 
-0.3010 <s> WILL </s> 
-0.3010 <s> WITH </s> 
-0.3010 <s> WITHOUT </s> 
-0.3010 <s> WORDS </s> 
-0.3010 <s> WORK </s> 
-0.3010 <s> WORLD </s> 
-0.3010 <s> WOULD </s> 
-0.3010 <s> WRITE </s> 
-0.3010 <s> YEARS </s> 
-0.3010 <s> YOU </s> 
-0.3010 <s> YOUNG </s> 
-0.3010 <s> YOUR </s> 

\end\
